Language model created by QuickLM on Sun Mar  2 14:59:47 EST 2025
Copyright (c) 1996-2010 Carnegie Mellon University and Alexander I. Rudnicky

The model is in standard ARPA format, designed by Doug Paul while he was at MITRE.

The code that was used to produce this language model is available in Open Source.
Please visit http://www.speech.cs.cmu.edu/tools/ for more information

The (fixed) discount mass is 0.5. The backoffs are computed using the ratio method.
This model based on a corpus of 8 sentences and 10 words

\data\
ngram 1=10
ngram 2=16
ngram 3=8

\1-grams:
-0.7782 </s> -0.3010
-0.7782 <s> -0.2218
-1.6812 DOWN -0.2218
-1.6812 LOCK -0.2218
-1.6812 OFF -0.2218
-1.6812 POWER -0.2218
-1.6812 RESTART -0.2218
-1.6812 SHUT -0.2218
-1.6812 SLEEP -0.2218
-1.6812 TURN -0.2218

\2-grams:
-1.2041 <s> DOWN 0.0000
-1.2041 <s> LOCK 0.0000
-1.2041 <s> OFF 0.0000
-1.2041 <s> POWER 0.0000
-1.2041 <s> RESTART 0.0000
-1.2041 <s> SHUT 0.0000
-1.2041 <s> SLEEP 0.0000
-1.2041 <s> TURN 0.0000
-0.3010 DOWN </s> -0.3010
-0.3010 LOCK </s> -0.3010
-0.3010 OFF </s> -0.3010
-0.3010 POWER </s> -0.3010
-0.3010 RESTART </s> -0.3010
-0.3010 SHUT </s> -0.3010
-0.3010 SLEEP </s> -0.3010
-0.3010 TURN </s> -0.3010

\3-grams:
-0.3010 <s> DOWN </s>
-0.3010 <s> LOCK </s>
-0.3010 <s> OFF </s>
-0.3010 <s> POWER </s>
-0.3010 <s> RESTART </s>
-0.3010 <s> SHUT </s>
-0.3010 <s> SLEEP </s>
-0.3010 <s> TURN </s>

\end\
