Language model created by QuickLM on Sun Mar 16 20:34:00 EDT 2025
Copyright (c) 1996-2010 Carnegie Mellon University and Alexander I. Rudnicky

The model is in standard ARPA format, designed by Doug Paul while he was at MITRE.

The code that was used to produce this language model is available in Open Source.
Please visit http://www.speech.cs.cmu.edu/tools/ for more information

The (fixed) discount mass is 0.5. The backoffs are computed using the ratio method.
This model based on a corpus of 17 sentences and 25 words

\data\
ngram 1=25
ngram 2=40
ngram 3=23

\1-grams:
-0.8265 </s> -0.3010
-0.8265 <s> -0.2309
-2.0569 AFTER -0.2972
-2.0569 BURNER -0.2309
-2.0569 CARDS -0.2309
-2.0569 CLOCK -0.2309
-2.0569 CORE -0.2972
-2.0569 CRAFT -0.2309
-2.0569 DATA -0.2309
-2.0569 EXIT -0.2309
-2.0569 FILES -0.2309
-2.0569 FIRE -0.2972
-2.0569 FLASH -0.2972
-2.0569 FOX -0.2309
-2.0569 IDEA -0.2309
-2.0569 MANAGER -0.2309
-2.0569 MESSAGES -0.2309
-2.0569 MUSIC -0.2309
-2.0569 NOTE -0.2972
-2.0569 PAD -0.2309
-2.0569 PASSWORD -0.2309
-2.0569 POMODORO -0.2309
-2.0569 SETTINGS -0.2309
-2.0569 STEAM -0.2309
-2.0569 TASK -0.2972

\2-grams:
-1.5315 <s> AFTER 0.0000
-1.5315 <s> CLOCK 0.0000
-1.5315 <s> CORE 0.0000
-1.5315 <s> CRAFT 0.0000
-1.5315 <s> EXIT 0.0000
-1.5315 <s> FILES 0.0000
-1.5315 <s> FIRE 0.0000
-1.5315 <s> FLASH 0.0000
-1.5315 <s> IDEA 0.0000
-1.5315 <s> MESSAGES 0.0000
-1.5315 <s> MUSIC 0.0000
-1.5315 <s> NOTE 0.0000
-1.5315 <s> PASSWORD 0.0000
-1.5315 <s> POMODORO 0.0000
-1.5315 <s> SETTINGS 0.0000
-1.5315 <s> STEAM 0.0000
-1.5315 <s> TASK 0.0000
-0.3010 AFTER BURNER 0.0000
-0.3010 BURNER </s> -0.3010
-0.3010 CARDS </s> -0.3010
-0.3010 CLOCK </s> -0.3010
-0.3010 CORE DATA 0.0000
-0.3010 CRAFT </s> -0.3010
-0.3010 DATA </s> -0.3010
-0.3010 EXIT </s> -0.3010
-0.3010 FILES </s> -0.3010
-0.3010 FIRE FOX 0.0000
-0.3010 FLASH CARDS 0.0000
-0.3010 FOX </s> -0.3010
-0.3010 IDEA </s> -0.3010
-0.3010 MANAGER </s> -0.3010
-0.3010 MESSAGES </s> -0.3010
-0.3010 MUSIC </s> -0.3010
-0.3010 NOTE PAD 0.0000
-0.3010 PAD </s> -0.3010
-0.3010 PASSWORD </s> -0.3010
-0.3010 POMODORO </s> -0.3010
-0.3010 SETTINGS </s> -0.3010
-0.3010 STEAM </s> -0.3010
-0.3010 TASK MANAGER 0.0000

\3-grams:
-0.3010 <s> AFTER BURNER
-0.3010 <s> CLOCK </s>
-0.3010 <s> CORE DATA
-0.3010 <s> CRAFT </s>
-0.3010 <s> EXIT </s>
-0.3010 <s> FILES </s>
-0.3010 <s> FIRE FOX
-0.3010 <s> FLASH CARDS
-0.3010 <s> IDEA </s>
-0.3010 <s> MESSAGES </s>
-0.3010 <s> MUSIC </s>
-0.3010 <s> NOTE PAD
-0.3010 <s> PASSWORD </s>
-0.3010 <s> POMODORO </s>
-0.3010 <s> SETTINGS </s>
-0.3010 <s> STEAM </s>
-0.3010 <s> TASK MANAGER
-0.3010 AFTER BURNER </s>
-0.3010 CORE DATA </s>
-0.3010 FIRE FOX </s>
-0.3010 FLASH CARDS </s>
-0.3010 NOTE PAD </s>
-0.3010 TASK MANAGER </s>

\end\
